digraph Tree {
node [shape=box] ;
0 [label="sex=female <= 0.5\ngini = 0.445\nsamples = 984\nvalue = [655, 329]"] ;
1 [label="age <= 13.5\ngini = 0.277\nsamples = 643\nvalue = [536, 107]"] ;
0 -> 1 [labeldistance=2.5, labelangle=45, headlabel="True"] ;
2 [label="pclass=3rd <= 0.5\ngini = 0.397\nsamples = 22\nvalue = [6, 16]"] ;
1 -> 2 ;
3 [label="gini = 0.0\nsamples = 12\nvalue = [0, 12]"] ;
2 -> 3 ;
4 [label="age <= 3.5\ngini = 0.48\nsamples = 10\nvalue = [6, 4]"] ;
2 -> 4 ;
5 [label="gini = 0.0\nsamples = 2\nvalue = [0, 2]"] ;
4 -> 5 ;
6 [label="age <= 7.5\ngini = 0.375\nsamples = 8\nvalue = [6, 2]"] ;
4 -> 6 ;
7 [label="gini = 0.0\nsamples = 4\nvalue = [4, 0]"] ;
6 -> 7 ;
8 [label="gini = 0.5\nsamples = 4\nvalue = [2, 2]"] ;
6 -> 8 ;
9 [label="pclass=1st <= 0.5\ngini = 0.25\nsamples = 621\nvalue = [530, 91]"] ;
1 -> 9 ;
10 [label="age <= 41.5\ngini = 0.191\nsamples = 496\nvalue = [443, 53]"] ;
9 -> 10 ;
11 [label="age <= 40.5\ngini = 0.199\nsamples = 474\nvalue = [421, 53]"] ;
10 -> 11 ;
12 [label="gini = 0.196\nsamples = 472\nvalue = [420, 52]"] ;
11 -> 12 ;
13 [label="gini = 0.5\nsamples = 2\nvalue = [1, 1]"] ;
11 -> 13 ;
14 [label="gini = 0.0\nsamples = 22\nvalue = [22, 0]"] ;
10 -> 14 ;
15 [label="age <= 49.5\ngini = 0.423\nsamples = 125\nvalue = [87, 38]"] ;
9 -> 15 ;
16 [label="age <= 28.5\ngini = 0.459\nsamples = 101\nvalue = [65, 36]"] ;
15 -> 16 ;
17 [label="gini = 0.492\nsamples = 16\nvalue = [7, 9]"] ;
16 -> 17 ;
18 [label="gini = 0.433\nsamples = 85\nvalue = [58, 27]"] ;
16 -> 18 ;
19 [label="age <= 60.5\ngini = 0.153\nsamples = 24\nvalue = [22, 2]"] ;
15 -> 19 ;
20 [label="gini = 0.231\nsamples = 15\nvalue = [13, 2]"] ;
19 -> 20 ;
21 [label="gini = 0.0\nsamples = 9\nvalue = [9, 0]"] ;
19 -> 21 ;
22 [label="pclass=3rd <= 0.5\ngini = 0.454\nsamples = 341\nvalue = [119, 222]"] ;
0 -> 22 [labeldistance=2.5, labelangle=-45, headlabel="False"] ;
23 [label="pclass=1st <= 0.5\ngini = 0.194\nsamples = 184\nvalue = [20, 164]"] ;
22 -> 23 ;
24 [label="age <= 55.0\ngini = 0.275\nsamples = 79\nvalue = [13, 66]"] ;
23 -> 24 ;
25 [label="age <= 16.5\ngini = 0.26\nsamples = 78\nvalue = [12, 66]"] ;
24 -> 25 ;
26 [label="gini = 0.0\nsamples = 10\nvalue = [0, 10]"] ;
25 -> 26 ;
27 [label="gini = 0.291\nsamples = 68\nvalue = [12, 56]"] ;
25 -> 27 ;
28 [label="gini = 0.0\nsamples = 1\nvalue = [1, 0]"] ;
24 -> 28 ;
29 [label="age <= 8.0\ngini = 0.124\nsamples = 105\nvalue = [7, 98]"] ;
23 -> 29 ;
30 [label="gini = 0.0\nsamples = 1\nvalue = [1, 0]"] ;
29 -> 30 ;
31 [label="age <= 61.5\ngini = 0.109\nsamples = 104\nvalue = [6, 98]"] ;
29 -> 31 ;
32 [label="gini = 0.094\nsamples = 101\nvalue = [5, 96]"] ;
31 -> 32 ;
33 [label="gini = 0.444\nsamples = 3\nvalue = [1, 2]"] ;
31 -> 33 ;
34 [label="age <= 23.5\ngini = 0.466\nsamples = 157\nvalue = [99, 58]"] ;
22 -> 34 ;
35 [label="age <= 1.083\ngini = 0.496\nsamples = 22\nvalue = [10, 12]"] ;
34 -> 35 ;
36 [label="gini = 0.0\nsamples = 1\nvalue = [0, 1]"] ;
35 -> 36 ;
37 [label="age <= 13.5\ngini = 0.499\nsamples = 21\nvalue = [10, 11]"] ;
35 -> 37 ;
38 [label="gini = 0.444\nsamples = 6\nvalue = [4, 2]"] ;
37 -> 38 ;
39 [label="gini = 0.48\nsamples = 15\nvalue = [6, 9]"] ;
37 -> 39 ;
40 [label="age <= 32.5\ngini = 0.449\nsamples = 135\nvalue = [89, 46]"] ;
34 -> 40 ;
41 [label="age <= 29.0\ngini = 0.441\nsamples = 128\nvalue = [86, 42]"] ;
40 -> 41 ;
42 [label="gini = 0.0\nsamples = 3\nvalue = [3, 0]"] ;
41 -> 42 ;
43 [label="gini = 0.446\nsamples = 125\nvalue = [83, 42]"] ;
41 -> 43 ;
44 [label="age <= 38.5\ngini = 0.49\nsamples = 7\nvalue = [3, 4]"] ;
40 -> 44 ;
45 [label="gini = 0.0\nsamples = 3\nvalue = [0, 3]"] ;
44 -> 45 ;
46 [label="gini = 0.375\nsamples = 4\nvalue = [3, 1]"] ;
44 -> 46 ;
}