digraph Tree {
node [shape=box] ;
0 [label="sex=male <= 0.5\ngini = 0.448\nsamples = 984\nvalue = [651, 333]"] ;
1 [label="pclass=3rd <= 0.5\ngini = 0.444\nsamples = 346\nvalue = [115, 231]"] ;
0 -> 1 [labeldistance=2.5, labelangle=45, headlabel="True"] ;
2 [label="age <= 2.5\ngini = 0.162\nsamples = 191\nvalue = [17, 174]"] ;
1 -> 2 ;
3 [label="pclass=2nd <= 0.5\ngini = 0.5\nsamples = 2\nvalue = [1, 1]"] ;
2 -> 3 ;
4 [label="gini = 0.0\nsamples = 1\nvalue = [1, 0]"] ;
3 -> 4 ;
5 [label="gini = 0.0\nsamples = 1\nvalue = [0, 1]"] ;
3 -> 5 ;
6 [label="age <= 62.5\ngini = 0.155\nsamples = 189\nvalue = [16, 173]"] ;
2 -> 6 ;
7 [label="pclass=1st <= 0.5\ngini = 0.148\nsamples = 187\nvalue = [15, 172]"] ;
6 -> 7 ;
8 [label="age <= 17.5\ngini = 0.221\nsamples = 87\nvalue = [11, 76]"] ;
7 -> 8 ;
9 [label="gini = 0.0\nsamples = 10\nvalue = [0, 10]"] ;
8 -> 9 ;
10 [label="age <= 18.5\ngini = 0.245\nsamples = 77\nvalue = [11, 66]"] ;
8 -> 10 ;
11 [label="gini = 0.444\nsamples = 3\nvalue = [1, 2]"] ;
10 -> 11 ;
12 [label="age <= 21.5\ngini = 0.234\nsamples = 74\nvalue = [10, 64]"] ;
10 -> 12 ;
13 [label="gini = 0.0\nsamples = 5\nvalue = [0, 5]"] ;
12 -> 13 ;
14 [label="age <= 30.5\ngini = 0.248\nsamples = 69\nvalue = [10, 59]"] ;
12 -> 14 ;
15 [label="age <= 29.5\ngini = 0.33\nsamples = 24\nvalue = [5, 19]"] ;
14 -> 15 ;
16 [label="age <= 27.5\ngini = 0.266\nsamples = 19\nvalue = [3, 16]"] ;
15 -> 16 ;
17 [label="age <= 25.5\ngini = 0.337\nsamples = 14\nvalue = [3, 11]"] ;
16 -> 17 ;
18 [label="age <= 22.5\ngini = 0.198\nsamples = 9\nvalue = [1, 8]"] ;
17 -> 18 ;
19 [label="gini = 0.444\nsamples = 3\nvalue = [1, 2]"] ;
18 -> 19 ;
20 [label="gini = 0.0\nsamples = 6\nvalue = [0, 6]"] ;
18 -> 20 ;
21 [label="age <= 26.5\ngini = 0.48\nsamples = 5\nvalue = [2, 3]"] ;
17 -> 21 ;
22 [label="gini = 0.444\nsamples = 3\nvalue = [1, 2]"] ;
21 -> 22 ;
23 [label="gini = 0.5\nsamples = 2\nvalue = [1, 1]"] ;
21 -> 23 ;
24 [label="gini = 0.0\nsamples = 5\nvalue = [0, 5]"] ;
16 -> 24 ;
25 [label="gini = 0.48\nsamples = 5\nvalue = [2, 3]"] ;
15 -> 25 ;
26 [label="age <= 37.0\ngini = 0.198\nsamples = 45\nvalue = [5, 40]"] ;
14 -> 26 ;
27 [label="age <= 31.597\ngini = 0.157\nsamples = 35\nvalue = [3, 32]"] ;
26 -> 27 ;
28 [label="age <= 31.097\ngini = 0.236\nsamples = 22\nvalue = [3, 19]"] ;
27 -> 28 ;
29 [label="gini = 0.0\nsamples = 2\nvalue = [0, 2]"] ;
28 -> 29 ;
30 [label="gini = 0.255\nsamples = 20\nvalue = [3, 17]"] ;
28 -> 30 ;
31 [label="gini = 0.0\nsamples = 13\nvalue = [0, 13]"] ;
27 -> 31 ;
32 [label="age <= 39.0\ngini = 0.32\nsamples = 10\nvalue = [2, 8]"] ;
26 -> 32 ;
33 [label="gini = 0.0\nsamples = 1\nvalue = [1, 0]"] ;
32 -> 33 ;
34 [label="age <= 44.5\ngini = 0.198\nsamples = 9\nvalue = [1, 8]"] ;
32 -> 34 ;
35 [label="age <= 43.0\ngini = 0.375\nsamples = 4\nvalue = [1, 3]"] ;
34 -> 35 ;
36 [label="gini = 0.0\nsamples = 3\nvalue = [0, 3]"] ;
35 -> 36 ;
37 [label="gini = 0.0\nsamples = 1\nvalue = [1, 0]"] ;
35 -> 37 ;
38 [label="gini = 0.0\nsamples = 5\nvalue = [0, 5]"] ;
34 -> 38 ;
39 [label="age <= 50.5\ngini = 0.077\nsamples = 100\nvalue = [4, 96]"] ;
7 -> 39 ;
40 [label="age <= 49.0\ngini = 0.091\nsamples = 84\nvalue = [4, 80]"] ;
39 -> 40 ;
41 [label="age <= 36.5\ngini = 0.071\nsamples = 81\nvalue = [3, 78]"] ;
40 -> 41 ;
42 [label="age <= 35.5\ngini = 0.092\nsamples = 62\nvalue = [3, 59]"] ;
41 -> 42 ;
43 [label="age <= 24.5\ngini = 0.067\nsamples = 58\nvalue = [2, 56]"] ;
42 -> 43 ;
44 [label="gini = 0.0\nsamples = 14\nvalue = [0, 14]"] ;
43 -> 44 ;
45 [label="age <= 25.5\ngini = 0.087\nsamples = 44\nvalue = [2, 42]"] ;
43 -> 45 ;
46 [label="gini = 0.0\nsamples = 1\nvalue = [1, 0]"] ;
45 -> 46 ;
47 [label="age <= 31.097\ngini = 0.045\nsamples = 43\nvalue = [1, 42]"] ;
45 -> 47 ;
48 [label="gini = 0.0\nsamples = 9\nvalue = [0, 9]"] ;
47 -> 48 ;
49 [label="age <= 32.097\ngini = 0.057\nsamples = 34\nvalue = [1, 33]"] ;
47 -> 49 ;
50 [label="gini = 0.062\nsamples = 31\nvalue = [1, 30]"] ;
49 -> 50 ;
51 [label="gini = 0.0\nsamples = 3\nvalue = [0, 3]"] ;
49 -> 51 ;
52 [label="gini = 0.375\nsamples = 4\nvalue = [1, 3]"] ;
42 -> 52 ;
53 [label="gini = 0.0\nsamples = 19\nvalue = [0, 19]"] ;
41 -> 53 ;
54 [label="gini = 0.444\nsamples = 3\nvalue = [1, 2]"] ;
40 -> 54 ;
55 [label="gini = 0.0\nsamples = 16\nvalue = [0, 16]"] ;
39 -> 55 ;
56 [label="age <= 66.0\ngini = 0.5\nsamples = 2\nvalue = [1, 1]"] ;
6 -> 56 ;
57 [label="gini = 0.0\nsamples = 1\nvalue = [1, 0]"] ;
56 -> 57 ;
58 [label="gini = 0.0\nsamples = 1\nvalue = [0, 1]"] ;
56 -> 58 ;
59 [label="age <= 19.5\ngini = 0.465\nsamples = 155\nvalue = [98, 57]"] ;
1 -> 59 ;
60 [label="age <= 12.5\ngini = 0.444\nsamples = 18\nvalue = [6, 12]"] ;
59 -> 60 ;
61 [label="age <= 5.5\ngini = 0.49\nsamples = 7\nvalue = [4, 3]"] ;
60 -> 61 ;
62 [label="age <= 3.5\ngini = 0.375\nsamples = 4\nvalue = [1, 3]"] ;
61 -> 62 ;
63 [label="age <= 1.083\ngini = 0.5\nsamples = 2\nvalue = [1, 1]"] ;
62 -> 63 ;
64 [label="gini = 0.0\nsamples = 1\nvalue = [0, 1]"] ;
63 -> 64 ;
65 [label="gini = 0.0\nsamples = 1\nvalue = [1, 0]"] ;
63 -> 65 ;
66 [label="gini = 0.0\nsamples = 2\nvalue = [0, 2]"] ;
62 -> 66 ;
67 [label="gini = 0.0\nsamples = 3\nvalue = [3, 0]"] ;
61 -> 67 ;
68 [label="age <= 17.5\ngini = 0.298\nsamples = 11\nvalue = [2, 9]"] ;
60 -> 68 ;
69 [label="gini = 0.0\nsamples = 5\nvalue = [0, 5]"] ;
68 -> 69 ;
70 [label="age <= 18.5\ngini = 0.444\nsamples = 6\nvalue = [2, 4]"] ;
68 -> 70 ;
71 [label="gini = 0.48\nsamples = 5\nvalue = [2, 3]"] ;
70 -> 71 ;
72 [label="gini = 0.0\nsamples = 1\nvalue = [0, 1]"] ;
70 -> 72 ;
73 [label="age <= 32.5\ngini = 0.441\nsamples = 137\nvalue = [92, 45]"] ;
59 -> 73 ;
74 [label="age <= 21.5\ngini = 0.427\nsamples = 126\nvalue = [87, 39]"] ;
73 -> 74 ;
75 [label="gini = 0.0\nsamples = 3\nvalue = [3, 0]"] ;
74 -> 75 ;
76 [label="age <= 23.5\ngini = 0.433\nsamples = 123\nvalue = [84, 39]"] ;
74 -> 76 ;
77 [label="age <= 22.5\ngini = 0.375\nsamples = 4\nvalue = [1, 3]"] ;
76 -> 77 ;
78 [label="gini = 0.444\nsamples = 3\nvalue = [1, 2]"] ;
77 -> 78 ;
79 [label="gini = 0.0\nsamples = 1\nvalue = [0, 1]"] ;
77 -> 79 ;
80 [label="age <= 29.0\ngini = 0.422\nsamples = 119\nvalue = [83, 36]"] ;
76 -> 80 ;
81 [label="gini = 0.0\nsamples = 3\nvalue = [3, 0]"] ;
80 -> 81 ;
82 [label="age <= 31.597\ngini = 0.428\nsamples = 116\nvalue = [80, 36]"] ;
80 -> 82 ;
83 [label="age <= 30.597\ngini = 0.43\nsamples = 115\nvalue = [79, 36]"] ;
82 -> 83 ;
84 [label="gini = 0.5\nsamples = 2\nvalue = [1, 1]"] ;
83 -> 84 ;
85 [label="gini = 0.428\nsamples = 113\nvalue = [78, 35]"] ;
83 -> 85 ;
86 [label="gini = 0.0\nsamples = 1\nvalue = [1, 0]"] ;
82 -> 86 ;
87 [label="age <= 36.5\ngini = 0.496\nsamples = 11\nvalue = [5, 6]"] ;
73 -> 87 ;
88 [label="gini = 0.0\nsamples = 5\nvalue = [0, 5]"] ;
87 -> 88 ;
89 [label="age <= 44.0\ngini = 0.278\nsamples = 6\nvalue = [5, 1]"] ;
87 -> 89 ;
90 [label="gini = 0.0\nsamples = 4\nvalue = [4, 0]"] ;
89 -> 90 ;
91 [label="age <= 46.5\ngini = 0.5\nsamples = 2\nvalue = [1, 1]"] ;
89 -> 91 ;
92 [label="gini = 0.0\nsamples = 1\nvalue = [0, 1]"] ;
91 -> 92 ;
93 [label="gini = 0.0\nsamples = 1\nvalue = [1, 0]"] ;
91 -> 93 ;
94 [label="age <= 13.5\ngini = 0.269\nsamples = 638\nvalue = [536, 102]"] ;
0 -> 94 [labeldistance=2.5, labelangle=-45, headlabel="False"] ;
95 [label="pclass=3rd <= 0.5\ngini = 0.388\nsamples = 19\nvalue = [5, 14]"] ;
94 -> 95 ;
96 [label="gini = 0.0\nsamples = 9\nvalue = [0, 9]"] ;
95 -> 96 ;
97 [label="age <= 4.5\ngini = 0.5\nsamples = 10\nvalue = [5, 5]"] ;
95 -> 97 ;
98 [label="age <= 0.583\ngini = 0.375\nsamples = 4\nvalue = [1, 3]"] ;
97 -> 98 ;
99 [label="gini = 0.0\nsamples = 1\nvalue = [1, 0]"] ;
98 -> 99 ;
100 [label="gini = 0.0\nsamples = 3\nvalue = [0, 3]"] ;
98 -> 100 ;
101 [label="age <= 7.5\ngini = 0.444\nsamples = 6\nvalue = [4, 2]"] ;
97 -> 101 ;
102 [label="gini = 0.0\nsamples = 2\nvalue = [2, 0]"] ;
101 -> 102 ;
103 [label="age <= 11.0\ngini = 0.5\nsamples = 4\nvalue = [2, 2]"] ;
101 -> 103 ;
104 [label="gini = 0.444\nsamples = 3\nvalue = [1, 2]"] ;
103 -> 104 ;
105 [label="gini = 0.0\nsamples = 1\nvalue = [1, 0]"] ;
103 -> 105 ;
106 [label="pclass=1st <= 0.5\ngini = 0.244\nsamples = 619\nvalue = [531, 88]"] ;
94 -> 106 ;
107 [label="age <= 18.5\ngini = 0.178\nsamples = 485\nvalue = [437, 48]"] ;
106 -> 107 ;
108 [label="gini = 0.0\nsamples = 18\nvalue = [18, 0]"] ;
107 -> 108 ;
109 [label="age <= 20.5\ngini = 0.184\nsamples = 467\nvalue = [419, 48]"] ;
107 -> 109 ;
110 [label="age <= 19.5\ngini = 0.388\nsamples = 19\nvalue = [14, 5]"] ;
109 -> 110 ;
111 [label="pclass=3rd <= 0.5\ngini = 0.444\nsamples = 9\nvalue = [6, 3]"] ;
110 -> 111 ;
112 [label="gini = 0.444\nsamples = 3\nvalue = [2, 1]"] ;
111 -> 112 ;
113 [label="gini = 0.444\nsamples = 6\nvalue = [4, 2]"] ;
111 -> 113 ;
114 [label="pclass=3rd <= 0.5\ngini = 0.32\nsamples = 10\nvalue = [8, 2]"] ;
110 -> 114 ;
115 [label="gini = 0.375\nsamples = 4\nvalue = [3, 1]"] ;
114 -> 115 ;
116 [label="gini = 0.278\nsamples = 6\nvalue = [5, 1]"] ;
114 -> 116 ;
117 [label="pclass=3rd <= 0.5\ngini = 0.174\nsamples = 448\nvalue = [405, 43]"] ;
109 -> 117 ;
118 [label="age <= 31.097\ngini = 0.118\nsamples = 111\nvalue = [104, 7]"] ;
117 -> 118 ;
119 [label="age <= 22.5\ngini = 0.051\nsamples = 38\nvalue = [37, 1]"] ;
118 -> 119 ;
120 [label="age <= 21.5\ngini = 0.219\nsamples = 8\nvalue = [7, 1]"] ;
119 -> 120 ;
121 [label="gini = 0.0\nsamples = 4\nvalue = [4, 0]"] ;
120 -> 121 ;
122 [label="gini = 0.375\nsamples = 4\nvalue = [3, 1]"] ;
120 -> 122 ;
123 [label="gini = 0.0\nsamples = 30\nvalue = [30, 0]"] ;
119 -> 123 ;
124 [label="age <= 41.5\ngini = 0.151\nsamples = 73\nvalue = [67, 6]"] ;
118 -> 124 ;
125 [label="age <= 40.5\ngini = 0.185\nsamples = 58\nvalue = [52, 6]"] ;
124 -> 125 ;
126 [label="age <= 34.5\ngini = 0.16\nsamples = 57\nvalue = [52, 5]"] ;
125 -> 126 ;
127 [label="age <= 31.597\ngini = 0.177\nsamples = 51\nvalue = [46, 5]"] ;
126 -> 127 ;
128 [label="gini = 0.142\nsamples = 39\nvalue = [36, 3]"] ;
127 -> 128 ;
129 [label="age <= 32.5\ngini = 0.278\nsamples = 12\nvalue = [10, 2]"] ;
127 -> 129 ;
130 [label="gini = 0.375\nsamples = 4\nvalue = [3, 1]"] ;
129 -> 130 ;
131 [label="age <= 33.5\ngini = 0.219\nsamples = 8\nvalue = [7, 1]"] ;
129 -> 131 ;
132 [label="gini = 0.0\nsamples = 1\nvalue = [1, 0]"] ;
131 -> 132 ;
133 [label="gini = 0.245\nsamples = 7\nvalue = [6, 1]"] ;
131 -> 133 ;
134 [label="gini = 0.0\nsamples = 6\nvalue = [6, 0]"] ;
126 -> 134 ;
135 [label="gini = 0.0\nsamples = 1\nvalue = [0, 1]"] ;
125 -> 135 ;
136 [label="gini = 0.0\nsamples = 15\nvalue = [15, 0]"] ;
124 -> 136 ;
137 [label="age <= 22.5\ngini = 0.191\nsamples = 337\nvalue = [301, 36]"] ;
117 -> 137 ;
138 [label="gini = 0.0\nsamples = 9\nvalue = [9, 0]"] ;
137 -> 138 ;
139 [label="age <= 25.5\ngini = 0.195\nsamples = 328\nvalue = [292, 36]"] ;
137 -> 139 ;
140 [label="age <= 23.5\ngini = 0.291\nsamples = 17\nvalue = [14, 3]"] ;
139 -> 140 ;
141 [label="gini = 0.32\nsamples = 5\nvalue = [4, 1]"] ;
140 -> 141 ;
142 [label="age <= 24.5\ngini = 0.278\nsamples = 12\nvalue = [10, 2]"] ;
140 -> 142 ;
143 [label="gini = 0.245\nsamples = 7\nvalue = [6, 1]"] ;
142 -> 143 ;
144 [label="gini = 0.32\nsamples = 5\nvalue = [4, 1]"] ;
142 -> 144 ;
145 [label="age <= 28.5\ngini = 0.19\nsamples = 311\nvalue = [278, 33]"] ;
139 -> 145 ;
146 [label="gini = 0.0\nsamples = 12\nvalue = [12, 0]"] ;
145 -> 146 ;
147 [label="age <= 30.597\ngini = 0.196\nsamples = 299\nvalue = [266, 33]"] ;
145 -> 147 ;
148 [label="age <= 29.5\ngini = 0.5\nsamples = 4\nvalue = [2, 2]"] ;
147 -> 148 ;
149 [label="gini = 0.5\nsamples = 2\nvalue = [1, 1]"] ;
148 -> 149 ;
150 [label="gini = 0.5\nsamples = 2\nvalue = [1, 1]"] ;
148 -> 150 ;
151 [label="age <= 36.5\ngini = 0.188\nsamples = 295\nvalue = [264, 31]"] ;
147 -> 151 ;
152 [label="age <= 35.5\ngini = 0.193\nsamples = 277\nvalue = [247, 30]"] ;
151 -> 152 ;
153 [label="age <= 32.5\ngini = 0.189\nsamples = 275\nvalue = [246, 29]"] ;
152 -> 153 ;
154 [label="age <= 31.597\ngini = 0.192\nsamples = 269\nvalue = [240, 29]"] ;
153 -> 154 ;
155 [label="gini = 0.189\nsamples = 265\nvalue = [237, 28]"] ;
154 -> 155 ;
156 [label="gini = 0.375\nsamples = 4\nvalue = [3, 1]"] ;
154 -> 156 ;
157 [label="gini = 0.0\nsamples = 6\nvalue = [6, 0]"] ;
153 -> 157 ;
158 [label="gini = 0.5\nsamples = 2\nvalue = [1, 1]"] ;
152 -> 158 ;
159 [label="age <= 44.5\ngini = 0.105\nsamples = 18\nvalue = [17, 1]"] ;
151 -> 159 ;
160 [label="gini = 0.0\nsamples = 13\nvalue = [13, 0]"] ;
159 -> 160 ;
161 [label="age <= 46.0\ngini = 0.32\nsamples = 5\nvalue = [4, 1]"] ;
159 -> 161 ;
162 [label="gini = 0.5\nsamples = 2\nvalue = [1, 1]"] ;
161 -> 162 ;
163 [label="gini = 0.0\nsamples = 3\nvalue = [3, 0]"] ;
161 -> 163 ;
164 [label="age <= 60.5\ngini = 0.419\nsamples = 134\nvalue = [94, 40]"] ;
106 -> 164 ;
165 [label="age <= 22.5\ngini = 0.435\nsamples = 125\nvalue = [85, 40]"] ;
164 -> 165 ;
166 [label="gini = 0.0\nsamples = 4\nvalue = [4, 0]"] ;
165 -> 166 ;
167 [label="age <= 28.5\ngini = 0.443\nsamples = 121\nvalue = [81, 40]"] ;
165 -> 167 ;
168 [label="age <= 23.5\ngini = 0.5\nsamples = 14\nvalue = [7, 7]"] ;
167 -> 168 ;
169 [label="gini = 0.0\nsamples = 1\nvalue = [0, 1]"] ;
168 -> 169 ;
170 [label="age <= 24.5\ngini = 0.497\nsamples = 13\nvalue = [7, 6]"] ;
168 -> 170 ;
171 [label="gini = 0.0\nsamples = 2\nvalue = [2, 0]"] ;
170 -> 171 ;
172 [label="age <= 26.5\ngini = 0.496\nsamples = 11\nvalue = [5, 6]"] ;
170 -> 172 ;
173 [label="age <= 25.5\ngini = 0.375\nsamples = 4\nvalue = [1, 3]"] ;
172 -> 173 ;
174 [label="gini = 0.444\nsamples = 3\nvalue = [1, 2]"] ;
173 -> 174 ;
175 [label="gini = 0.0\nsamples = 1\nvalue = [0, 1]"] ;
173 -> 175 ;
176 [label="age <= 27.5\ngini = 0.49\nsamples = 7\nvalue = [4, 3]"] ;
172 -> 176 ;
177 [label="gini = 0.444\nsamples = 3\nvalue = [2, 1]"] ;
176 -> 177 ;
178 [label="gini = 0.5\nsamples = 4\nvalue = [2, 2]"] ;
176 -> 178 ;
179 [label="age <= 31.097\ngini = 0.427\nsamples = 107\nvalue = [74, 33]"] ;
167 -> 179 ;
180 [label="gini = 0.0\nsamples = 6\nvalue = [6, 0]"] ;
179 -> 180 ;
181 [label="age <= 31.597\ngini = 0.44\nsamples = 101\nvalue = [68, 33]"] ;
179 -> 181 ;
182 [label="gini = 0.393\nsamples = 41\nvalue = [30, 11]"] ;
181 -> 182 ;
183 [label="age <= 36.5\ngini = 0.464\nsamples = 60\nvalue = [38, 22]"] ;
181 -> 183 ;
184 [label="age <= 33.5\ngini = 0.486\nsamples = 12\nvalue = [5, 7]"] ;
183 -> 184 ;
185 [label="age <= 32.5\ngini = 0.444\nsamples = 3\nvalue = [2, 1]"] ;
184 -> 185 ;
186 [label="gini = 0.5\nsamples = 2\nvalue = [1, 1]"] ;
185 -> 186 ;
187 [label="gini = 0.0\nsamples = 1\nvalue = [1, 0]"] ;
185 -> 187 ;
188 [label="age <= 35.5\ngini = 0.444\nsamples = 9\nvalue = [3, 6]"] ;
184 -> 188 ;
189 [label="gini = 0.0\nsamples = 2\nvalue = [0, 2]"] ;
188 -> 189 ;
190 [label="gini = 0.49\nsamples = 7\nvalue = [3, 4]"] ;
188 -> 190 ;
191 [label="age <= 47.5\ngini = 0.43\nsamples = 48\nvalue = [33, 15]"] ;
183 -> 191 ;
192 [label="age <= 39.5\ngini = 0.355\nsamples = 26\nvalue = [20, 6]"] ;
191 -> 192 ;
193 [label="age <= 37.5\ngini = 0.469\nsamples = 8\nvalue = [5, 3]"] ;
192 -> 193 ;
194 [label="gini = 0.444\nsamples = 3\nvalue = [2, 1]"] ;
193 -> 194 ;
195 [label="age <= 38.5\ngini = 0.48\nsamples = 5\nvalue = [3, 2]"] ;
193 -> 195 ;
196 [label="gini = 0.5\nsamples = 2\nvalue = [1, 1]"] ;
195 -> 196 ;
197 [label="gini = 0.444\nsamples = 3\nvalue = [2, 1]"] ;
195 -> 197 ;
198 [label="age <= 41.5\ngini = 0.278\nsamples = 18\nvalue = [15, 3]"] ;
192 -> 198 ;
199 [label="gini = 0.0\nsamples = 3\nvalue = [3, 0]"] ;
198 -> 199 ;
200 [label="age <= 43.0\ngini = 0.32\nsamples = 15\nvalue = [12, 3]"] ;
198 -> 200 ;
201 [label="gini = 0.5\nsamples = 2\nvalue = [1, 1]"] ;
200 -> 201 ;
202 [label="age <= 45.5\ngini = 0.26\nsamples = 13\nvalue = [11, 2]"] ;
200 -> 202 ;
203 [label="age <= 44.5\ngini = 0.375\nsamples = 4\nvalue = [3, 1]"] ;
202 -> 203 ;
204 [label="gini = 0.0\nsamples = 1\nvalue = [1, 0]"] ;
203 -> 204 ;
205 [label="gini = 0.444\nsamples = 3\nvalue = [2, 1]"] ;
203 -> 205 ;
206 [label="age <= 46.5\ngini = 0.198\nsamples = 9\nvalue = [8, 1]"] ;
202 -> 206 ;
207 [label="gini = 0.0\nsamples = 4\nvalue = [4, 0]"] ;
206 -> 207 ;
208 [label="gini = 0.32\nsamples = 5\nvalue = [4, 1]"] ;
206 -> 208 ;
209 [label="age <= 49.5\ngini = 0.483\nsamples = 22\nvalue = [13, 9]"] ;
191 -> 209 ;
210 [label="age <= 48.5\ngini = 0.469\nsamples = 8\nvalue = [3, 5]"] ;
209 -> 210 ;
211 [label="gini = 0.444\nsamples = 3\nvalue = [1, 2]"] ;
210 -> 211 ;
212 [label="gini = 0.48\nsamples = 5\nvalue = [2, 3]"] ;
210 -> 212 ;
213 [label="age <= 53.0\ngini = 0.408\nsamples = 14\nvalue = [10, 4]"] ;
209 -> 213 ;
214 [label="gini = 0.0\nsamples = 4\nvalue = [4, 0]"] ;
213 -> 214 ;
215 [label="age <= 54.5\ngini = 0.48\nsamples = 10\nvalue = [6, 4]"] ;
213 -> 215 ;
216 [label="gini = 0.444\nsamples = 3\nvalue = [1, 2]"] ;
215 -> 216 ;
217 [label="age <= 55.5\ngini = 0.408\nsamples = 7\nvalue = [5, 2]"] ;
215 -> 217 ;
218 [label="gini = 0.0\nsamples = 2\nvalue = [2, 0]"] ;
217 -> 218 ;
219 [label="age <= 56.5\ngini = 0.48\nsamples = 5\nvalue = [3, 2]"] ;
217 -> 219 ;
220 [label="gini = 0.5\nsamples = 2\nvalue = [1, 1]"] ;
219 -> 220 ;
221 [label="age <= 58.5\ngini = 0.444\nsamples = 3\nvalue = [2, 1]"] ;
219 -> 221 ;
222 [label="gini = 0.0\nsamples = 1\nvalue = [1, 0]"] ;
221 -> 222 ;
223 [label="gini = 0.5\nsamples = 2\nvalue = [1, 1]"] ;
221 -> 223 ;
224 [label="gini = 0.0\nsamples = 9\nvalue = [9, 0]"] ;
164 -> 224 ;
}